digraph Tree {
node [shape=box, style="filled, rounded", color="black", fontname="helvetica"] ;
edge [fontname="helvetica"] ;
0 [label="petal length (cm) <= 2.7\ngini = 0.66\nsamples = 99\nvalue = [50, 39, 61]\nclass = virginica", fillcolor="#f1e9fc"] ;
1 [label="gini = 0.0\nsamples = 32\nvalue = [50, 0, 0]\nclass = setosa", fillcolor="#e58139"] ;
0 -> 1 [labeldistance=2.5, labelangle=45, headlabel="True"] ;
2 [label="petal width (cm) <= 1.55\ngini = 0.48\nsamples = 67\nvalue = [0, 39, 61]\nclass = virginica", fillcolor="#d2b8f6"] ;
0 -> 2 [labeldistance=2.5, labelangle=-45, headlabel="False"] ;
3 [label="petal length (cm) <= 4.95\ngini = 0.26\nsamples = 31\nvalue = [0, 39, 7]\nclass = versicolor", fillcolor="#5dea98"] ;
2 -> 3 ;
4 [label="gini = 0.0\nsamples = 28\nvalue = [0, 39, 0]\nclass = versicolor", fillcolor="#39e581"] ;
3 -> 4 ;
5 [label="gini = 0.0\nsamples = 3\nvalue = [0, 0, 7]\nclass = virginica", fillcolor="#8139e5"] ;
3 -> 5 ;
6 [label="gini = 0.0\nsamples = 36\nvalue = [0, 0, 54]\nclass = virginica", fillcolor="#8139e5"] ;
2 -> 6 ;
}